<?xml version="1.0"?>
<opencv_storage>
<stage2>
  <maxWeakCount>6</maxWeakCount>
  <stageThreshold>-1.3526979684829712e+00</stageThreshold>
  <weakClassifiers>
    <_>
      <internalNodes>
        0 -1 158745 2.7882538735866547e-02</internalNodes>
      <leafValues>
        -9.5329087972640991e-01 -4.0350878238677979e-01</leafValues></_>
    <_>
      <internalNodes>
        0 -1 6388 1.5593296289443970e-01</internalNodes>
      <leafValues>
        -6.8584209680557251e-01 5.5551832914352417e-01</leafValues></_>
    <_>
      <internalNodes>
        0 -1 134945 8.7942510843276978e-02</internalNodes>
      <leafValues>
        -6.2427949905395508e-01 5.9034079313278198e-01</leafValues></_>
    <_>
      <internalNodes>
        0 -1 97939 -1.5573687851428986e-01</internalNodes>
      <leafValues>
        -1. 2.3098936676979065e-01</leafValues></_>
    <_>
      <internalNodes>
        0 -1 130648 -2.4028354883193970e-01</internalNodes>
      <leafValues>
        2.5459653139114380e-01 -1.</leafValues></_>
    <_>
      <internalNodes>
        0 -1 18342 -1.3080164790153503e-02</internalNodes>
      <leafValues>
        4.2512869834899902e-01 -5.8696991205215454e-01</leafValues></_></weakClassifiers></stage2>
</opencv_storage>
