<?xml version="1.0"?>
<opencv_storage>
<stage5>
  <maxWeakCount>8</maxWeakCount>
  <stageThreshold>-1.3055191040039063e+00</stageThreshold>
  <weakClassifiers>
    <_>
      <internalNodes>
        0 -1 96150 4.9526929855346680e-02</internalNodes>
      <leafValues>
        -9.1860467195510864e-01 1.6666667163372040e-01</leafValues></_>
    <_>
      <internalNodes>
        0 -1 161676 -1.0049071162939072e-02</internalNodes>
      <leafValues>
        2.0978848636150360e-01 -7.1969538927078247e-01</leafValues></_>
    <_>
      <internalNodes>
        0 -1 111251 7.3621302843093872e-02</internalNodes>
      <leafValues>
        -5.5125528573989868e-01 5.9915566444396973e-01</leafValues></_>
    <_>
      <internalNodes>
        0 -1 141638 -2.9909491422586143e-04</internalNodes>
      <leafValues>
        -7.8822886943817139e-01 3.2916489243507385e-01</leafValues></_>
    <_>
      <internalNodes>
        0 -1 141634 -4.1022070217877626e-04</internalNodes>
      <leafValues>
        -9.6089583635330200e-01 2.4647918343544006e-01</leafValues></_>
    <_>
      <internalNodes>
        0 -1 7457 5.6833820417523384e-03</internalNodes>
      <leafValues>
        -3.9914420247077942e-01 6.0672396421432495e-01</leafValues></_>
    <_>
      <internalNodes>
        0 -1 141916 -7.0524029433727264e-04</internalNodes>
      <leafValues>
        -9.4293689727783203e-01 2.9458245635032654e-01</leafValues></_>
    <_>
      <internalNodes>
        0 -1 144876 2.3683695122599602e-02</internalNodes>
      <leafValues>
        -4.0500435233116150e-01 6.5349072217941284e-01</leafValues></_></weakClassifiers></stage5>
</opencv_storage>
