<?xml version="1.0"?>
<opencv_storage>
<stage6>
  <maxWeakCount>7</maxWeakCount>
  <stageThreshold>-1.7155276536941528e+00</stageThreshold>
  <weakClassifiers>
    <_>
      <internalNodes>
        0 -1 122565 -2.4600900709629059e-02</internalNodes>
      <leafValues>
        -2.7272728085517883e-01 -9.3535351753234863e-01</leafValues></_>
    <_>
      <internalNodes>
        0 -1 29190 -1.8002588301897049e-02</internalNodes>
      <leafValues>
        -2.6694529224187136e-03 -7.5674283504486084e-01</leafValues></_>
    <_>
      <internalNodes>
        0 -1 74444 1.1502987891435623e-01</internalNodes>
      <leafValues>
        -4.1675257682800293e-01 7.3433238267898560e-01</leafValues></_>
    <_>
      <internalNodes>
        0 -1 104822 -5.4817570344312117e-05</internalNodes>
      <leafValues>
        3.2825115323066711e-01 -7.6523917913436890e-01</leafValues></_>
    <_>
      <internalNodes>
        0 -1 135341 -2.3708706721663475e-03</internalNodes>
      <leafValues>
        5.0744259357452393e-01 -4.4256746768951416e-01</leafValues></_>
    <_>
      <internalNodes>
        0 -1 151137 -2.6814907323569059e-04</internalNodes>
      <leafValues>
        -9.2787617444992065e-01 2.0726574957370758e-01</leafValues></_>
    <_>
      <internalNodes>
        0 -1 22233 5.0216466188430786e-03</internalNodes>
      <leafValues>
        -3.1022122502326965e-01 6.8210947513580322e-01</leafValues></_></weakClassifiers></stage6>
</opencv_storage>
