<?xml version="1.0"?>
<opencv_storage>
<stage3>
  <maxWeakCount>5</maxWeakCount>
  <stageThreshold>-1.1217682361602783e+00</stageThreshold>
  <weakClassifiers>
    <_>
      <internalNodes>
        0 -1 158745 2.7979280799627304e-02</internalNodes>
      <leafValues>
        -9.0965092182159424e-01 -1.4492753893136978e-02</leafValues></_>
    <_>
      <internalNodes>
        0 -1 7610 4.7983877360820770e-02</internalNodes>
      <leafValues>
        -6.2021279335021973e-01 5.5338287353515625e-01</leafValues></_>
    <_>
      <internalNodes>
        0 -1 135335 6.2533557415008545e-02</internalNodes>
      <leafValues>
        -5.7961618900299072e-01 5.7254332304000854e-01</leafValues></_>
    <_>
      <internalNodes>
        0 -1 125427 3.2435319735668600e-04</internalNodes>
      <leafValues>
        3.0748748779296875e-01 -1.</leafValues></_>
    <_>
      <internalNodes>
        0 -1 161857 -7.9673863947391510e-03</internalNodes>
      <leafValues>
        6.8022418022155762e-01 -4.2583474516868591e-01</leafValues></_></weakClassifiers></stage3>
</opencv_storage>
