<?xml version="1.0"?>
<opencv_storage>
<stage1>
  <maxWeakCount>5</maxWeakCount>
  <stageThreshold>-1.4178265333175659e+00</stageThreshold>
  <weakClassifiers>
    <_>
      <internalNodes>
        0 -1 112555 3.3996552228927612e-02</internalNodes>
      <leafValues>
        -8.9863550662994385e-01 3.9534884691238403e-01</leafValues></_>
    <_>
      <internalNodes>
        0 -1 40643 2.4814562499523163e-01</internalNodes>
      <leafValues>
        -6.5333819389343262e-01 8.1226044893264771e-01</leafValues></_>
    <_>
      <internalNodes>
        0 -1 127723 1.3289371505379677e-02</internalNodes>
      <leafValues>
        -6.4370566606521606e-01 6.5234166383743286e-01</leafValues></_>
    <_>
      <internalNodes>
        0 -1 132661 -5.4597333073616028e-02</internalNodes>
      <leafValues>
        3.5688337683677673e-01 -1.</leafValues></_>
    <_>
      <internalNodes>
        0 -1 162110 8.5309857968240976e-04</internalNodes>
      <leafValues>
        -6.6835439205169678e-01 4.2096945643424988e-01</leafValues></_></weakClassifiers></stage1>
</opencv_storage>
