<?xml version="1.0"?>
<opencv_storage>
<stage4>
  <maxWeakCount>5</maxWeakCount>
  <stageThreshold>-7.1544098854064941e-01</stageThreshold>
  <weakClassifiers>
    <_>
      <internalNodes>
        0 -1 13826 -5.8221194893121719e-02</internalNodes>
      <leafValues>
        7.0731705427169800e-01 -6.3478261232376099e-01</leafValues></_>
    <_>
      <internalNodes>
        0 -1 138341 -4.1007690015248954e-04</internalNodes>
      <leafValues>
        -1. 3.5563990473747253e-01</leafValues></_>
    <_>
      <internalNodes>
        0 -1 78447 -5.4491240531206131e-02</internalNodes>
      <leafValues>
        8.9874297380447388e-01 -4.6525672078132629e-01</leafValues></_>
    <_>
      <internalNodes>
        0 -1 9115 6.0009449720382690e-02</internalNodes>
      <leafValues>
        -4.6552515029907227e-01 8.8750725984573364e-01</leafValues></_>
    <_>
      <internalNodes>
        0 -1 152958 -1.0963157983496785e-03</internalNodes>
      <leafValues>
        -1. 4.9448359012603760e-01</leafValues></_></weakClassifiers></stage4>
</opencv_storage>
