<?xml version="1.0"?>
<opencv_storage>
<cascade>
  <stageType>BOOST</stageType>
  <featureType>HAAR</featureType>
  <height>24</height>
  <width>24</width>
  <stageParams>
    <boostType>GAB</boostType>
    <minHitRate>9.9500000476837158e-01</minHitRate>
    <maxFalseAlarm>5.0000000000000000e-01</maxFalseAlarm>
    <weightTrimRate>9.4999999999999996e-01</weightTrimRate>
    <maxDepth>1</maxDepth>
    <maxWeakCount>100</maxWeakCount></stageParams>
  <featureParams>
    <maxCatCount>0</maxCatCount>
    <featSize>1</featSize>
    <mode>BASIC</mode></featureParams>
  <stageNum>9</stageNum>
  <stages>
    <!-- stage 0 -->
    <_>
      <maxWeakCount>3</maxWeakCount>
      <stageThreshold>-7.3729151487350464e-01</stageThreshold>
      <weakClassifiers>
        <_>
          <internalNodes>
            0 -1 24 6.8225413560867310e-02</internalNodes>
          <leafValues>
            -7.2661870718002319e-01 1.</leafValues></_>
        <_>
          <internalNodes>
            0 -1 30 -2.3947302252054214e-02</internalNodes>
          <leafValues>
            9.7150665521621704e-01 -5.0196671485900879e-01</leafValues></_>
        <_>
          <internalNodes>
            0 -1 17 1.5918043573037721e-05</internalNodes>
          <leafValues>
            4.9129384756088257e-01 -8.3183437585830688e-01</leafValues></_></weakClassifiers></_>
    <!-- stage 1 -->
    <_>
      <maxWeakCount>3</maxWeakCount>
      <stageThreshold>-2.8122952580451965e-01</stageThreshold>
      <weakClassifiers>
        <_>
          <internalNodes>
            0 -1 13 3.5967975854873657e-02</internalNodes>
          <leafValues>
            -7.1014493703842163e-01 8.9189189672470093e-01</leafValues></_>
        <_>
          <internalNodes>
            0 -1 5 2.1109810471534729e-01</internalNodes>
          <leafValues>
            -4.3580695986747742e-01 9.6829164028167725e-01</leafValues></_>
        <_>
          <internalNodes>
            0 -1 25 7.8539304435253143e-02</internalNodes>
          <leafValues>
            -4.6911886334419250e-01 8.6472237110137939e-01</leafValues></_></weakClassifiers></_>
    <!-- stage 2 -->
    <_>
      <maxWeakCount>2</maxWeakCount>
      <stageThreshold>-3.5255396366119385e-01</stageThreshold>
      <weakClassifiers>
        <_>
          <internalNodes>
            0 -1 9 -1.0077098011970520e-01</internalNodes>
          <leafValues>
            8.9473682641983032e-01 -7.2262775897979736e-01</leafValues></_>
        <_>
          <internalNodes>
            0 -1 14 -2.4673330783843994e-01</internalNodes>
          <leafValues>
            3.7007379531860352e-01 -1.</leafValues></_></weakClassifiers></_>
    <!-- stage 3 -->
    <_>
      <maxWeakCount>4</maxWeakCount>
      <stageThreshold>-2.0419877767562866e-01</stageThreshold>
      <weakClassifiers>
        <_>
          <internalNodes>
            0 -1 2 -5.6534335017204285e-02</internalNodes>
          <leafValues>
            6.8888890743255615e-01 -7.3846155405044556e-01</leafValues></_>
        <_>
          <internalNodes>
            0 -1 8 -2.3016810417175293e-02</internalNodes>
          <leafValues>
            8.5051292181015015e-01 -5.4496037960052490e-01</leafValues></_>
        <_>
          <internalNodes>
            0 -1 18 7.2710576932877302e-04</internalNodes>
          <leafValues>
            4.0978500247001648e-01 -9.3299245834350586e-01</leafValues></_>
        <_>
          <internalNodes>
            0 -1 4 3.3014096319675446e-02</internalNodes>
          <leafValues>
            -5.9954375028610229e-01 6.6943812370300293e-01</leafValues></_></weakClassifiers></_>
    <!-- stage 4 -->
    <_>
      <maxWeakCount>4</maxWeakCount>
      <stageThreshold>-5.2559393644332886e-01</stageThreshold>
      <weakClassifiers>
        <_>
          <internalNodes>
            0 -1 11 -3.5609841346740723e-02</internalNodes>
          <leafValues>
            5.4166668653488159e-01 -7.1653544902801514e-01</leafValues></_>
        <_>
          <internalNodes>
            0 -1 31 -3.9961505681276321e-03</internalNodes>
          <leafValues>
            7.4202442169189453e-01 -5.3088396787643433e-01</leafValues></_>
        <_>
          <internalNodes>
            0 -1 22 -1.8493479490280151e-01</internalNodes>
          <leafValues>
            -8.2484984397888184e-01 4.0224403142929077e-01</leafValues></_>
        <_>
          <internalNodes>
            0 -1 16 -3.1645863782614470e-04</internalNodes>
          <leafValues>
            -9.4109100103378296e-01 3.1958141922950745e-01</leafValues></_></weakClassifiers></_>
    <!-- stage 5 -->
    <_>
      <maxWeakCount>5</maxWeakCount>
      <stageThreshold>-3.0149215459823608e-01</stageThreshold>
      <weakClassifiers>
        <_>
          <internalNodes>
            0 -1 12 -2.8903640806674957e-02</internalNodes>
          <leafValues>
            4.5833334326744080e-01 -6.8503934144973755e-01</leafValues></_>
        <_>
          <internalNodes>
            0 -1 6 -2.5621548295021057e-02</internalNodes>
          <leafValues>
            8.8690012693405151e-01 -4.4022440910339355e-01</leafValues></_>
        <_>
          <internalNodes>
            0 -1 21 9.3021531938575208e-05</internalNodes>
          <leafValues>
            3.5405719280242920e-01 -9.3630903959274292e-01</leafValues></_>
        <_>
          <internalNodes>
            0 -1 26 8.6510121822357178e-02</internalNodes>
          <leafValues>
            -3.9904233813285828e-01 8.2880139350891113e-01</leafValues></_>
        <_>
          <internalNodes>
            0 -1 3 1.0369572788476944e-01</internalNodes>
          <leafValues>
            -2.7461597323417664e-01 1.</leafValues></_></weakClassifiers></_>
    <!-- stage 6 -->
    <_>
      <maxWeakCount>3</maxWeakCount>
      <stageThreshold>-1.6053164005279541e+00</stageThreshold>
      <weakClassifiers>
        <_>
          <internalNodes>
            0 -1 7 1.7389118671417236e-01</internalNodes>
          <leafValues>
            -9.1682785749435425e-01 1.4285714924335480e-01</leafValues></_>
        <_>
          <internalNodes>
            0 -1 10 2.0754322409629822e-01</internalNodes>
          <leafValues>
            -8.0913072824478149e-01 2.5836297869682312e-01</leafValues></_>
        <_>
          <internalNodes>
            0 -1 20 -2.8907586238346994e-04</internalNodes>
          <leafValues>
            -9.3904274702072144e-01 1.9078697264194489e-01</leafValues></_></weakClassifiers></_>
    <!-- stage 7 -->
    <_>
      <maxWeakCount>5</maxWeakCount>
      <stageThreshold>-1.7537119388580322e+00</stageThreshold>
      <weakClassifiers>
        <_>
          <internalNodes>
            0 -1 0 -2.7573533356189728e-02</internalNodes>
          <leafValues>
            1.1999999731779099e-01 -9.2038834095001221e-01</leafValues></_>
        <_>
          <internalNodes>
            0 -1 27 -2.4597009643912315e-02</internalNodes>
          <leafValues>
            5.0806295871734619e-01 -6.9617474079132080e-01</leafValues></_>
        <_>
          <internalNodes>
            0 -1 29 2.0184937864542007e-02</internalNodes>
          <leafValues>
            -6.3462907075881958e-01 6.0914170742034912e-01</leafValues></_>
        <_>
          <internalNodes>
            0 -1 15 6.0647318605333567e-04</internalNodes>
          <leafValues>
            3.1631380319595337e-01 -8.9206403493881226e-01</leafValues></_>
        <_>
          <internalNodes>
            0 -1 19 -7.3180638719350100e-04</internalNodes>
          <leafValues>
            -1. 1.8116644024848938e-01</leafValues></_></weakClassifiers></_>
    <!-- stage 8 -->
    <_>
      <maxWeakCount>4</maxWeakCount>
      <stageThreshold>-1.7528183460235596e+00</stageThreshold>
      <weakClassifiers>
        <_>
          <internalNodes>
            0 -1 1 3.0627375468611717e-02</internalNodes>
          <leafValues>
            -9.0830945968627930e-01 7.5000000000000000e-01</leafValues></_>
        <_>
          <internalNodes>
            0 -1 28 -1.7682652920484543e-02</internalNodes>
          <leafValues>
            1.5890042483806610e-01 -7.4936395883560181e-01</leafValues></_>
        <_>
          <internalNodes>
            0 -1 30 -2.4406889453530312e-02</internalNodes>
          <leafValues>
            8.2228612899780273e-01 -4.4096273183822632e-01</leafValues></_>
        <_>
          <internalNodes>
            0 -1 23 5.4444153647636995e-05</internalNodes>
          <leafValues>
            -5.6244659423828125e-01 4.2228195071220398e-01</leafValues></_></weakClassifiers></_></stages>
  <features>
    <_>
      <rects>
        <_>
          0 9 4 7 -1.</_>
        <_>
          2 9 2 7 2.</_></rects>
      <tilted>0</tilted></_>
    <_>
      <rects>
        <_>
          0 11 4 8 -1.</_>
        <_>
          0 11 2 4 2.</_>
        <_>
          2 15 2 4 2.</_></rects>
      <tilted>0</tilted></_>
    <_>
      <rects>
        <_>
          1 0 14 14 -1.</_>
        <_>
          1 0 7 7 2.</_>
        <_>
          8 7 7 7 2.</_></rects>
      <tilted>0</tilted></_>
    <_>
      <rects>
        <_>
          1 7 16 13 -1.</_>
        <_>
          9 7 8 13 2.</_></rects>
      <tilted>0</tilted></_>
    <_>
      <rects>
        <_>
          1 16 16 8 -1.</_>
        <_>
          1 16 8 4 2.</_>
        <_>
          9 20 8 4 2.</_></rects>
      <tilted>0</tilted></_>
    <_>
      <rects>
        <_>
          3 1 16 12 -1.</_>
        <_>
          3 7 16 6 2.</_></rects>
      <tilted>0</tilted></_>
    <_>
      <rects>
        <_>
          3 10 5 8 -1.</_>
        <_>
          3 14 5 4 2.</_></rects>
      <tilted>0</tilted></_>
    <_>
      <rects>
        <_>
          4 2 9 14 -1.</_>
        <_>
          4 9 9 7 2.</_></rects>
      <tilted>0</tilted></_>
    <_>
      <rects>
        <_>
          6 12 4 12 -1.</_>
        <_>
          6 18 4 6 2.</_></rects>
      <tilted>0</tilted></_>
    <_>
      <rects>
        <_>
          7 2 12 10 -1.</_>
        <_>
          7 7 12 5 2.</_></rects>
      <tilted>0</tilted></_>
    <_>
      <rects>
        <_>
          9 6 13 18 -1.</_>
        <_>
          9 15 13 9 2.</_></rects>
      <tilted>0</tilted></_>
    <_>
      <rects>
        <_>
          10 2 9 6 -1.</_>
        <_>
          10 5 9 3 2.</_></rects>
      <tilted>0</tilted></_>
    <_>
      <rects>
        <_>
          10 3 6 6 -1.</_>
        <_>
          10 6 6 3 2.</_></rects>
      <tilted>0</tilted></_>
    <_>
      <rects>
        <_>
          10 14 6 8 -1.</_>
        <_>
          10 18 6 4 2.</_></rects>
      <tilted>0</tilted></_>
    <_>
      <rects>
        <_>
          14 1 6 17 -1.</_>
        <_>
          16 1 2 17 2.</_></rects>
      <tilted>0</tilted></_>
    <_>
      <rects>
        <_>
          14 6 2 6 -1.</_>
        <_>
          14 6 1 3 2.</_>
        <_>
          15 9 1 3 2.</_></rects>
      <tilted>0</tilted></_>
    <_>
      <rects>
        <_>
          14 7 2 4 -1.</_>
        <_>
          14 7 1 2 2.</_>
        <_>
          15 9 1 2 2.</_></rects>
      <tilted>0</tilted></_>
    <_>
      <rects>
        <_>
          14 10 2 1 -1.</_>
        <_>
          15 10 1 1 2.</_></rects>
      <tilted>0</tilted></_>
    <_>
      <rects>
        <_>
          14 11 4 4 -1.</_>
        <_>
          14 11 2 2 2.</_>
        <_>
          16 13 2 2 2.</_></rects>
      <tilted>0</tilted></_>
    <_>
      <rects>
        <_>
          15 8 2 4 -1.</_>
        <_>
          16 8 1 4 2.</_></rects>
      <tilted>0</tilted></_>
    <_>
      <rects>
        <_>
          15 10 2 4 -1.</_>
        <_>
          15 10 1 2 2.</_>
        <_>
          16 12 1 2 2.</_></rects>
      <tilted>0</tilted></_>
    <_>
      <rects>
        <_>
          15 12 2 1 -1.</_>
        <_>
          16 12 1 1 2.</_></rects>
      <tilted>0</tilted></_>
    <_>
      <rects>
        <_>
          15 12 9 4 -1.</_>
        <_>
          18 12 3 4 2.</_></rects>
      <tilted>0</tilted></_>
    <_>
      <rects>
        <_>
          16 13 2 2 -1.</_>
        <_>
          16 14 2 1 2.</_></rects>
      <tilted>0</tilted></_>
    <_>
      <rects>
        <_>
          18 5 6 15 -1.</_>
        <_>
          21 5 3 15 2.</_></rects>
      <tilted>0</tilted></_>
    <_>
      <rects>
        <_>
          18 5 6 19 -1.</_>
        <_>
          21 5 3 19 2.</_></rects>
      <tilted>0</tilted></_>
    <_>
      <rects>
        <_>
          18 6 6 14 -1.</_>
        <_>
          21 6 3 14 2.</_></rects>
      <tilted>0</tilted></_>
    <_>
      <rects>
        <_>
          20 8 4 9 -1.</_>
        <_>
          22 8 2 9 2.</_></rects>
      <tilted>0</tilted></_>
    <_>
      <rects>
        <_>
          20 9 4 14 -1.</_>
        <_>
          20 9 2 7 2.</_>
        <_>
          22 16 2 7 2.</_></rects>
      <tilted>0</tilted></_>
    <_>
      <rects>
        <_>
          20 10 4 6 -1.</_>
        <_>
          22 10 2 6 2.</_></rects>
      <tilted>0</tilted></_>
    <_>
      <rects>
        <_>
          20 11 4 8 -1.</_>
        <_>
          22 11 2 8 2.</_></rects>
      <tilted>0</tilted></_>
    <_>
      <rects>
        <_>
          22 11 2 6 -1.</_>
        <_>
          23 11 1 6 2.</_></rects>
      <tilted>0</tilted></_></features></cascade>
</opencv_storage>
