<?xml version="1.0"?>
<opencv_storage>
<stage5>
  <maxWeakCount>5</maxWeakCount>
  <stageThreshold>-3.0149215459823608e-01</stageThreshold>
  <weakClassifiers>
    <_>
      <internalNodes>
        0 -1 108914 -2.8903640806674957e-02</internalNodes>
      <leafValues>
        4.5833334326744080e-01 -6.8503934144973755e-01</leafValues></_>
    <_>
      <internalNodes>
        0 -1 45742 -2.5621548295021057e-02</internalNodes>
      <leafValues>
        8.8690012693405151e-01 -4.4022440910339355e-01</leafValues></_>
    <_>
      <internalNodes>
        0 -1 142824 9.3021531938575208e-05</internalNodes>
      <leafValues>
        3.5405719280242920e-01 -9.3630903959274292e-01</leafValues></_>
    <_>
      <internalNodes>
        0 -1 153499 8.6510121822357178e-02</internalNodes>
      <leafValues>
        -3.9904233813285828e-01 8.2880139350891113e-01</leafValues></_>
    <_>
      <internalNodes>
        0 -1 19985 1.0369572788476944e-01</internalNodes>
      <leafValues>
        -2.7461597323417664e-01 1.</leafValues></_></weakClassifiers></stage5>
</opencv_storage>
