<?xml version="1.0"?>
<opencv_storage>
<stage11>
  <maxWeakCount>6</maxWeakCount>
  <stageThreshold>-1.9763693809509277e+00</stageThreshold>
  <weakClassifiers>
    <_>
      <internalNodes>
        0 -1 22724 2.7350045740604401e-02</internalNodes>
      <leafValues>
        -9.0657770633697510e-01 1.</leafValues></_>
    <_>
      <internalNodes>
        0 -1 109808 -1.4475031755864620e-02</internalNodes>
      <leafValues>
        9.1005146503448486e-02 -7.3882180452346802e-01</leafValues></_>
    <_>
      <internalNodes>
        0 -1 31361 -1.6184220090508461e-02</internalNodes>
      <leafValues>
        4.6418127417564392e-01 -4.3533807992935181e-01</leafValues></_>
    <_>
      <internalNodes>
        0 -1 143228 -2.3543895804323256e-04</internalNodes>
      <leafValues>
        -1. 1.8755102157592773e-01</leafValues></_>
    <_>
      <internalNodes>
        0 -1 104822 -5.4950487538008019e-05</internalNodes>
      <leafValues>
        2.8585311770439148e-01 -6.5787684917449951e-01</leafValues></_>
    <_>
      <internalNodes>
        0 -1 74213 8.7490215897560120e-02</internalNodes>
      <leafValues>
        -3.6903598904609680e-01 7.5049418210983276e-01</leafValues></_></weakClassifiers></stage11>
</opencv_storage>
