<?xml version="1.0"?>
<opencv_storage>
<stage13>
  <maxWeakCount>5</maxWeakCount>
  <stageThreshold>-1.8463023900985718e+00</stageThreshold>
  <weakClassifiers>
    <_>
      <internalNodes>
        0 -1 96150 4.7138638794422150e-02</internalNodes>
      <leafValues>
        -9.2352938652038574e-01 -8.5714288055896759e-02</leafValues></_>
    <_>
      <internalNodes>
        0 -1 161620 -1.7255255952477455e-02</internalNodes>
      <leafValues>
        3.3839952945709229e-01 -6.8972808122634888e-01</leafValues></_>
    <_>
      <internalNodes>
        0 -1 91111 -1.2061119079589844e-01</internalNodes>
      <leafValues>
        4.6322587132453918e-01 -5.2428716421127319e-01</leafValues></_>
    <_>
      <internalNodes>
        0 -1 122304 1.6616189852356911e-02</internalNodes>
      <leafValues>
        -2.8076454997062683e-01 6.9737416505813599e-01</leafValues></_>
    <_>
      <internalNodes>
        0 -1 101938 -1.0226565413177013e-02</internalNodes>
      <leafValues>
        5.7200682163238525e-01 -3.2150918245315552e-01</leafValues></_></weakClassifiers></stage13>
</opencv_storage>
