<?xml version="1.0"?>
<opencv_storage>
<cascade>
  <stageType>BOOST</stageType>
  <featureType>HAAR</featureType>
  <height>24</height>
  <width>24</width>
  <stageParams>
    <boostType>GAB</boostType>
    <minHitRate>9.9500000476837158e-01</minHitRate>
    <maxFalseAlarm>5.0000000000000000e-01</maxFalseAlarm>
    <weightTrimRate>9.4999999999999996e-01</weightTrimRate>
    <maxDepth>1</maxDepth>
    <maxWeakCount>100</maxWeakCount></stageParams>
  <featureParams>
    <maxCatCount>0</maxCatCount>
    <featSize>1</featSize>
    <mode>BASIC</mode></featureParams>
  <stageNum>9</stageNum>
  <stages>
    <!-- stage 0 -->
    <_>
      <maxWeakCount>5</maxWeakCount>
      <stageThreshold>-6.5473419427871704e-01</stageThreshold>
      <weakClassifiers>
        <_>
          <internalNodes>
            0 -1 22 6.8225413560867310e-02</internalNodes>
          <leafValues>
            -8.1735157966613770e-01 9.4594591856002808e-01</leafValues></_>
        <_>
          <internalNodes>
            0 -1 27 -2.3947302252054214e-02</internalNodes>
          <leafValues>
            9.1309469938278198e-01 -6.2621968984603882e-01</leafValues></_>
        <_>
          <internalNodes>
            0 -1 23 2.5374384131282568e-04</internalNodes>
          <leafValues>
            3.6875751614570618e-01 -1.</leafValues></_>
        <_>
          <internalNodes>
            0 -1 21 5.8339372277259827e-02</internalNodes>
          <leafValues>
            -4.6256884932518005e-01 9.3706417083740234e-01</leafValues></_>
        <_>
          <internalNodes>
            0 -1 1 -4.7650173306465149e-02</internalNodes>
          <leafValues>
            8.8264840841293335e-01 -3.8212889432907104e-01</leafValues></_></weakClassifiers></_>
    <!-- stage 1 -->
    <_>
      <maxWeakCount>5</maxWeakCount>
      <stageThreshold>-1.1789705753326416e+00</stageThreshold>
      <weakClassifiers>
        <_>
          <internalNodes>
            0 -1 10 -7.3890753090381622e-02</internalNodes>
          <leafValues>
            5.8333331346511841e-01 -8.2692307233810425e-01</leafValues></_>
        <_>
          <internalNodes>
            0 -1 2 1.8385756015777588e-01</internalNodes>
          <leafValues>
            -6.0893714427947998e-01 7.9769325256347656e-01</leafValues></_>
        <_>
          <internalNodes>
            0 -1 24 -4.2659021914005280e-02</internalNodes>
          <leafValues>
            3.9330956339836121e-01 -1.</leafValues></_>
        <_>
          <internalNodes>
            0 -1 9 -6.2868066132068634e-02</internalNodes>
          <leafValues>
            7.7671360969543457e-01 -5.4004031419754028e-01</leafValues></_>
        <_>
          <internalNodes>
            0 -1 20 -5.0011009443551302e-04</internalNodes>
          <leafValues>
            -1. 4.0362036228179932e-01</leafValues></_></weakClassifiers></_>
    <!-- stage 2 -->
    <_>
      <maxWeakCount>3</maxWeakCount>
      <stageThreshold>-5.0954711437225342e-01</stageThreshold>
      <weakClassifiers>
        <_>
          <internalNodes>
            0 -1 12 4.1787214577198029e-02</internalNodes>
          <leafValues>
            -7.8995436429977417e-01 7.8378379344940186e-01</leafValues></_>
        <_>
          <internalNodes>
            0 -1 5 2.1842299401760101e-01</internalNodes>
          <leafValues>
            -5.1223492622375488e-01 8.3465647697448730e-01</leafValues></_>
        <_>
          <internalNodes>
            0 -1 11 -1.7299447208642960e-02</internalNodes>
          <leafValues>
            7.9264217615127563e-01 -5.5180251598358154e-01</leafValues></_></weakClassifiers></_>
    <!-- stage 3 -->
    <_>
      <maxWeakCount>3</maxWeakCount>
      <stageThreshold>-6.9110739231109619e-01</stageThreshold>
      <weakClassifiers>
        <_>
          <internalNodes>
            0 -1 14 1.0265040397644043e-01</internalNodes>
          <leafValues>
            -7.9534882307052612e-01 6.5853661298751831e-01</leafValues></_>
        <_>
          <internalNodes>
            0 -1 28 -5.9886733070015907e-03</internalNodes>
          <leafValues>
            5.2898401021957397e-01 -6.3195145130157471e-01</leafValues></_>
        <_>
          <internalNodes>
            0 -1 18 1.4906764030456543e-02</internalNodes>
          <leafValues>
            -4.2439350485801697e-01 7.3619288206100464e-01</leafValues></_></weakClassifiers></_>
    <!-- stage 4 -->
    <_>
      <maxWeakCount>2</maxWeakCount>
      <stageThreshold>-5.5441653728485107e-01</stageThreshold>
      <weakClassifiers>
        <_>
          <internalNodes>
            0 -1 8 -9.3450009822845459e-02</internalNodes>
          <leafValues>
            3.4545454382896423e-01 -8.1094527244567871e-01</leafValues></_>
        <_>
          <internalNodes>
            0 -1 15 -4.9988783895969391e-02</internalNodes>
          <leafValues>
            -1. 2.5652876496315002e-01</leafValues></_></weakClassifiers></_>
    <!-- stage 5 -->
    <_>
      <maxWeakCount>3</maxWeakCount>
      <stageThreshold>-9.6315926313400269e-01</stageThreshold>
      <weakClassifiers>
        <_>
          <internalNodes>
            0 -1 7 -1.4527973532676697e-01</internalNodes>
          <leafValues>
            6.0975611209869385e-01 -7.8604650497436523e-01</leafValues></_>
        <_>
          <internalNodes>
            0 -1 20 2.7832842897623777e-04</internalNodes>
          <leafValues>
            3.6692821979522705e-01 -8.8590210676193237e-01</leafValues></_>
        <_>
          <internalNodes>
            0 -1 6 4.8387669026851654e-02</internalNodes>
          <leafValues>
            -5.4404097795486450e-01 7.5489270687103271e-01</leafValues></_></weakClassifiers></_>
    <!-- stage 6 -->
    <_>
      <maxWeakCount>3</maxWeakCount>
      <stageThreshold>-9.0981215238571167e-01</stageThreshold>
      <weakClassifiers>
        <_>
          <internalNodes>
            0 -1 4 -1.5684860944747925e-01</internalNodes>
          <leafValues>
            8.3333331346511841e-01 -7.9090911149978638e-01</leafValues></_>
        <_>
          <internalNodes>
            0 -1 3 1.2638586759567261e-01</internalNodes>
          <leafValues>
            -5.7642561197280884e-01 9.1261440515518188e-01</leafValues></_>
        <_>
          <internalNodes>
            0 -1 17 -1.3264182489365339e-03</internalNodes>
          <leafValues>
            -9.5087820291519165e-01 4.5752254128456116e-01</leafValues></_></weakClassifiers></_>
    <!-- stage 7 -->
    <_>
      <maxWeakCount>3</maxWeakCount>
      <stageThreshold>-8.5493314266204834e-01</stageThreshold>
      <weakClassifiers>
        <_>
          <internalNodes>
            0 -1 26 1.6414415091276169e-02</internalNodes>
          <leafValues>
            -7.7777779102325439e-01 6.0000002384185791e-01</leafValues></_>
        <_>
          <internalNodes>
            0 -1 0 5.7907737791538239e-03</internalNodes>
          <leafValues>
            -5.1017796993255615e-01 9.0550744533538818e-01</leafValues></_>
        <_>
          <internalNodes>
            0 -1 16 1.4491239562630653e-04</internalNodes>
          <leafValues>
            4.3302255868911743e-01 -1.</leafValues></_></weakClassifiers></_>
    <!-- stage 8 -->
    <_>
      <maxWeakCount>4</maxWeakCount>
      <stageThreshold>-1.0068707466125488e+00</stageThreshold>
      <weakClassifiers>
        <_>
          <internalNodes>
            0 -1 25 2.4525234475731850e-02</internalNodes>
          <leafValues>
            -7.7674418687820435e-01 5.6097561120986938e-01</leafValues></_>
        <_>
          <internalNodes>
            0 -1 16 -1.9292489741928875e-04</internalNodes>
          <leafValues>
            -7.7225261926651001e-01 3.4323927760124207e-01</leafValues></_>
        <_>
          <internalNodes>
            0 -1 13 2.4211163690779358e-05</internalNodes>
          <leafValues>
            3.0200406908988953e-01 -8.5235297679901123e-01</leafValues></_>
        <_>
          <internalNodes>
            0 -1 19 -5.8927724603563547e-04</internalNodes>
          <leafValues>
            -1. 2.7898713946342468e-01</leafValues></_></weakClassifiers></_></stages>
  <features>
    <_>
      <rects>
        <_>
          0 5 2 16 -1.</_>
        <_>
          1 5 1 16 2.</_></rects>
      <tilted>0</tilted></_>
    <_>
      <rects>
        <_>
          0 12 15 6 -1.</_>
        <_>
          0 15 15 3 2.</_></rects>
      <tilted>0</tilted></_>
    <_>
      <rects>
        <_>
          2 1 15 12 -1.</_>
        <_>
          2 7 15 6 2.</_></rects>
      <tilted>0</tilted></_>
    <_>
      <rects>
        <_>
          2 1 22 10 -1.</_>
        <_>
          2 6 22 5 2.</_></rects>
      <tilted>0</tilted></_>
    <_>
      <rects>
        <_>
          5 0 12 14 -1.</_>
        <_>
          5 7 12 7 2.</_></rects>
      <tilted>0</tilted></_>
    <_>
      <rects>
        <_>
          6 0 11 16 -1.</_>
        <_>
          6 8 11 8 2.</_></rects>
      <tilted>0</tilted></_>
    <_>
      <rects>
        <_>
          6 5 14 14 -1.</_>
        <_>
          13 5 7 14 2.</_></rects>
      <tilted>0</tilted></_>
    <_>
      <rects>
        <_>
          7 0 13 12 -1.</_>
        <_>
          7 6 13 6 2.</_></rects>
      <tilted>0</tilted></_>
    <_>
      <rects>
        <_>
          8 1 11 10 -1.</_>
        <_>
          8 6 11 5 2.</_></rects>
      <tilted>0</tilted></_>
    <_>
      <rects>
        <_>
          10 0 6 12 -1.</_>
        <_>
          10 6 6 6 2.</_></rects>
      <tilted>0</tilted></_>
    <_>
      <rects>
        <_>
          10 1 8 10 -1.</_>
        <_>
          10 6 8 5 2.</_></rects>
      <tilted>0</tilted></_>
    <_>
      <rects>
        <_>
          10 4 6 8 -1.</_>
        <_>
          10 8 6 4 2.</_></rects>
      <tilted>0</tilted></_>
    <_>
      <rects>
        <_>
          10 10 4 12 -1.</_>
        <_>
          10 16 4 6 2.</_></rects>
      <tilted>0</tilted></_>
    <_>
      <rects>
        <_>
          10 11 4 2 -1.</_>
        <_>
          12 11 2 2 2.</_></rects>
      <tilted>0</tilted></_>
    <_>
      <rects>
        <_>
          11 14 11 10 -1.</_>
        <_>
          11 19 11 5 2.</_></rects>
      <tilted>0</tilted></_>
    <_>
      <rects>
        <_>
          12 22 6 1 -1.</_>
        <_>
          14 22 2 1 2.</_></rects>
      <tilted>0</tilted></_>
    <_>
      <rects>
        <_>
          13 10 2 3 -1.</_>
        <_>
          14 10 1 3 2.</_></rects>
      <tilted>0</tilted></_>
    <_>
      <rects>
        <_>
          13 10 6 4 -1.</_>
        <_>
          13 10 3 2 2.</_>
        <_>
          16 12 3 2 2.</_></rects>
      <tilted>0</tilted></_>
    <_>
      <rects>
        <_>
          13 18 7 4 -1.</_>
        <_>
          13 20 7 2 2.</_></rects>
      <tilted>0</tilted></_>
    <_>
      <rects>
        <_>
          15 8 2 2 -1.</_>
        <_>
          15 9 2 1 2.</_></rects>
      <tilted>0</tilted></_>
    <_>
      <rects>
        <_>
          16 11 2 4 -1.</_>
        <_>
          16 11 1 2 2.</_>
        <_>
          17 13 1 2 2.</_></rects>
      <tilted>0</tilted></_>
    <_>
      <rects>
        <_>
          18 0 6 19 -1.</_>
        <_>
          21 0 3 19 2.</_></rects>
      <tilted>0</tilted></_>
    <_>
      <rects>
        <_>
          18 5 6 15 -1.</_>
        <_>
          21 5 3 15 2.</_></rects>
      <tilted>0</tilted></_>
    <_>
      <rects>
        <_>
          18 11 1 2 -1.</_>
        <_>
          18 12 1 1 2.</_></rects>
      <tilted>0</tilted></_>
    <_>
      <rects>
        <_>
          18 12 2 9 -1.</_>
        <_>
          18 15 2 3 2.</_></rects>
      <tilted>0</tilted></_>
    <_>
      <rects>
        <_>
          20 8 4 7 -1.</_>
        <_>
          22 8 2 7 2.</_></rects>
      <tilted>0</tilted></_>
    <_>
      <rects>
        <_>
          20 10 4 4 -1.</_>
        <_>
          22 10 2 4 2.</_></rects>
      <tilted>0</tilted></_>
    <_>
      <rects>
        <_>
          20 11 4 8 -1.</_>
        <_>
          22 11 2 8 2.</_></rects>
      <tilted>0</tilted></_>
    <_>
      <rects>
        <_>
          22 2 2 14 -1.</_>
        <_>
          23 2 1 14 2.</_></rects>
      <tilted>0</tilted></_></features></cascade>
</opencv_storage>
