<?xml version="1.0"?>
<opencv_storage>
<stage1>
  <maxWeakCount>5</maxWeakCount>
  <stageThreshold>-1.1789705753326416e+00</stageThreshold>
  <weakClassifiers>
    <_>
      <internalNodes>
        0 -1 107892 -7.3890753090381622e-02</internalNodes>
      <leafValues>
        5.8333331346511841e-01 -8.2692307233810425e-01</leafValues></_>
    <_>
      <internalNodes>
        0 -1 27605 1.8385756015777588e-01</internalNodes>
      <leafValues>
        -6.0893714427947998e-01 7.9769325256347656e-01</leafValues></_>
    <_>
      <internalNodes>
        0 -1 154439 -4.2659021914005280e-02</internalNodes>
      <leafValues>
        3.9330956339836121e-01 -1.</leafValues></_>
    <_>
      <internalNodes>
        0 -1 107197 -6.2868066132068634e-02</internalNodes>
      <leafValues>
        7.7671360969543457e-01 -5.4004031419754028e-01</leafValues></_>
    <_>
      <internalNodes>
        0 -1 147051 -5.0011009443551302e-04</internalNodes>
      <leafValues>
        -1. 4.0362036228179932e-01</leafValues></_></weakClassifiers></stage1>
</opencv_storage>
